0.0,-5.302999090598947,0.0,-1.0294927119494668,0.0,0.0,8.00786860820059,0.6215501488363468,8.262643810489774,0.0,-11.039271616981667,0.0,0.0,-0.17079905683520957,10.433953201268805,0.0,0.0,0.0,-2.509499107635809,-5.1581584196594035,0.0,0.0,6.469207367801699,-12.264660859245547,0.0,-12.56481108574328,11.085420526469134,0.0,0.0,0.0,-3.0618450052253907,0.9884573554442317,0.0,12.875275797435393,0.0,0.0,-0.08006851463730214,-5.975112823015592,5.732251290944825,0.27180351284456794,5.586814469442232,0.0,7.212198641296192,0.9689226894238079,0.0,2.7941104069811384,0.0,1.5736860791897131,0.0,10.357731134749137,-4.303227237268098,6.137379857867196,0.0,-2.3985721817097696,0.0,0.0,-1.4275671141347754,-4.3412192756204195,0.0,4.185063415486733,-0.8791877938071881,2.5808188131743353,-1.8928682848135994,8.40765351368122,-14.49641024023821,-4.248502510744192,0.0,1.6737050904639021,0.0,-1.8771428219000708,0.0,0.0,0.0,0.0,0.0,0.0,-0.9101503311155703,-0.6813766552873519,0.0,0.0,-1.870910352165807,-2.9364193254200526,0.0,0.0,-1.5792740960693288,0.0,-8.523951741390364,0.0,0.0,0.0,4.95447966010047,8.113828717033245,-5.106944860438003,-10.410106823441888,0.0,-1.8236304973181046,-4.100732405759259,-4.91587663970403,-2.3782547320740726,8.75206120935224
0.0,5.302999090598947,0.0,1.0294927119494668,0.0,0.0,-8.00786860820059,-0.6215501488363468,-8.262643810489774,0.0,11.039271616981667,0.0,0.0,0.17079905683520957,-10.433953201268805,0.0,0.0,0.0,2.509499107635809,5.1581584196594035,0.0,0.0,-6.469207367801699,12.264660859245547,0.0,12.56481108574328,-11.085420526469134,0.0,0.0,0.0,3.0618450052253907,-0.9884573554442317,0.0,-12.875275797435393,0.0,0.0,0.08006851463730214,5.975112823015592,-5.732251290944825,-0.27180351284456794,-5.586814469442232,0.0,-7.212198641296192,-0.9689226894238079,0.0,-2.7941104069811384,0.0,-1.5736860791897131,0.0,-10.357731134749137,4.303227237268098,-6.137379857867196,0.0,2.3985721817097696,0.0,0.0,1.4275671141347754,4.3412192756204195,0.0,-4.185063415486733,0.8791877938071881,-2.5808188131743353,1.8928682848135994,-8.40765351368122,14.49641024023821,4.248502510744192,0.0,-1.6737050904639021,0.0,1.8771428219000708,0.0,0.0,0.0,0.0,0.0,0.0,0.9101503311155703,0.6813766552873519,0.0,0.0,1.870910352165807,2.9364193254200526,0.0,0.0,1.5792740960693288,0.0,8.523951741390364,0.0,0.0,0.0,-4.95447966010047,-8.113828717033245,5.106944860438003,10.410106823441888,0.0,1.8236304973181046,4.100732405759259,4.91587663970403,2.3782547320740726,-8.75206120935224
0.0,5.302999090598947,0.0,1.0294927119494668,0.0,0.0,-8.00786860820059,-0.6215501488363468,-8.262643810489774,0.0,11.039271616981667,0.0,0.0,0.17079905683520957,-10.433953201268805,0.0,0.0,0.0,2.509499107635809,5.1581584196594035,0.0,0.0,-6.469207367801699,12.264660859245547,0.0,12.56481108574328,-11.085420526469134,0.0,0.0,0.0,3.0618450052253907,-0.9884573554442317,0.0,-12.875275797435393,0.0,0.0,0.08006851463730214,5.975112823015592,-5.732251290944825,-0.27180351284456794,-5.586814469442232,0.0,-7.212198641296192,-0.9689226894238079,0.0,-2.7941104069811384,0.0,-1.5736860791897131,0.0,-10.357731134749137,4.303227237268098,-6.137379857867196,0.0,2.3985721817097696,0.0,0.0,1.4275671141347754,4.3412192756204195,0.0,-4.185063415486733,0.8791877938071881,-2.5808188131743353,1.8928682848135994,-8.40765351368122,14.49641024023821,4.248502510744192,0.0,-1.6737050904639021,0.0,1.8771428219000708,0.0,0.0,0.0,0.0,0.0,0.0,0.9101503311155703,0.6813766552873519,0.0,0.0,1.870910352165807,2.9364193254200526,0.0,0.0,1.5792740960693288,0.0,8.523951741390364,0.0,0.0,0.0,-4.95447966010047,-8.113828717033245,5.106944860438003,10.410106823441888,0.0,1.8236304973181046,4.100732405759259,4.91587663970403,2.3782547320740726,-8.75206120935224
0.0,5.302999090598947,0.0,1.0294927119494668,0.0,0.0,-8.00786860820059,-0.6215501488363468,-8.262643810489774,0.0,11.039271616981667,0.0,0.0,0.17079905683520957,-10.433953201268805,0.0,0.0,0.0,2.509499107635809,5.1581584196594035,0.0,0.0,-6.469207367801699,12.264660859245547,0.0,12.56481108574328,-11.085420526469134,0.0,0.0,0.0,3.0618450052253907,-0.9884573554442317,0.0,-12.875275797435393,0.0,0.0,0.08006851463730214,5.975112823015592,-5.732251290944825,-0.27180351284456794,-5.586814469442232,0.0,-7.212198641296192,-0.9689226894238079,0.0,-2.7941104069811384,0.0,-1.5736860791897131,0.0,-10.357731134749137,4.303227237268098,-6.137379857867196,0.0,2.3985721817097696,0.0,0.0,1.4275671141347754,4.3412192756204195,0.0,-4.185063415486733,0.8791877938071881,-2.5808188131743353,1.8928682848135994,-8.40765351368122,14.49641024023821,4.248502510744192,0.0,-1.6737050904639021,0.0,1.8771428219000708,0.0,0.0,0.0,0.0,0.0,0.0,0.9101503311155703,0.6813766552873519,0.0,0.0,1.870910352165807,2.9364193254200526,0.0,0.0,1.5792740960693288,0.0,8.523951741390364,0.0,0.0,0.0,-4.95447966010047,-8.113828717033245,5.106944860438003,10.410106823441888,0.0,1.8236304973181046,4.100732405759259,4.91587663970403,2.3782547320740726,-8.75206120935224
0.0,-5.302999090598947,0.0,-1.0294927119494668,0.0,0.0,8.00786860820059,0.6215501488363468,8.262643810489774,0.0,-11.039271616981667,0.0,0.0,-0.17079905683520957,10.433953201268805,0.0,0.0,0.0,-2.509499107635809,-5.1581584196594035,0.0,0.0,6.469207367801699,-12.264660859245547,0.0,-12.56481108574328,11.085420526469134,0.0,0.0,0.0,-3.0618450052253907,0.9884573554442317,0.0,12.875275797435393,0.0,0.0,-0.08006851463730214,-5.975112823015592,5.732251290944825,0.27180351284456794,5.586814469442232,0.0,7.212198641296192,0.9689226894238079,0.0,2.7941104069811384,0.0,1.5736860791897131,0.0,10.357731134749137,-4.303227237268098,6.137379857867196,0.0,-2.3985721817097696,0.0,0.0,-1.4275671141347754,-4.3412192756204195,0.0,4.185063415486733,-0.8791877938071881,2.5808188131743353,-1.8928682848135994,8.40765351368122,-14.49641024023821,-4.248502510744192,0.0,1.6737050904639021,0.0,-1.8771428219000708,0.0,0.0,0.0,0.0,0.0,0.0,-0.9101503311155703,-0.6813766552873519,0.0,0.0,-1.870910352165807,-2.9364193254200526,0.0,0.0,-1.5792740960693288,0.0,-8.523951741390364,0.0,0.0,0.0,4.95447966010047,8.113828717033245,-5.106944860438003,-10.410106823441888,0.0,-1.8236304973181046,-4.100732405759259,-4.91587663970403,-2.3782547320740726,8.75206120935224
0.0,-5.302999090598947,0.0,-1.0294927119494668,0.0,0.0,8.00786860820059,0.6215501488363468,8.262643810489774,0.0,-11.039271616981667,0.0,0.0,-0.17079905683520957,10.433953201268805,0.0,0.0,0.0,-2.509499107635809,-5.1581584196594035,0.0,0.0,6.469207367801699,-12.264660859245547,0.0,-12.56481108574328,11.085420526469134,0.0,0.0,0.0,-3.0618450052253907,0.9884573554442317,0.0,12.875275797435393,0.0,0.0,-0.08006851463730214,-5.975112823015592,5.732251290944825,0.27180351284456794,5.586814469442232,0.0,7.212198641296192,0.9689226894238079,0.0,2.7941104069811384,0.0,1.5736860791897131,0.0,10.357731134749137,-4.303227237268098,6.137379857867196,0.0,-2.3985721817097696,0.0,0.0,-1.4275671141347754,-4.3412192756204195,0.0,4.185063415486733,-0.8791877938071881,2.5808188131743353,-1.8928682848135994,8.40765351368122,-14.49641024023821,-4.248502510744192,0.0,1.6737050904639021,0.0,-1.8771428219000708,0.0,0.0,0.0,0.0,0.0,0.0,-0.9101503311155703,-0.6813766552873519,0.0,0.0,-1.870910352165807,-2.9364193254200526,0.0,0.0,-1.5792740960693288,0.0,-8.523951741390364,0.0,0.0,0.0,4.95447966010047,8.113828717033245,-5.106944860438003,-10.410106823441888,0.0,-1.8236304973181046,-4.100732405759259,-4.91587663970403,-2.3782547320740726,8.75206120935224
0.0,5.302999090598947,0.0,1.0294927119494668,0.0,0.0,-8.00786860820059,-0.6215501488363468,-8.262643810489774,0.0,11.039271616981667,0.0,0.0,0.17079905683520957,-10.433953201268805,0.0,0.0,0.0,2.509499107635809,5.1581584196594035,0.0,0.0,-6.469207367801699,12.264660859245547,0.0,12.56481108574328,-11.085420526469134,0.0,0.0,0.0,3.0618450052253907,-0.9884573554442317,0.0,-12.875275797435393,0.0,0.0,0.08006851463730214,5.975112823015592,-5.732251290944825,-0.27180351284456794,-5.586814469442232,0.0,-7.212198641296192,-0.9689226894238079,0.0,-2.7941104069811384,0.0,-1.5736860791897131,0.0,-10.357731134749137,4.303227237268098,-6.137379857867196,0.0,2.3985721817097696,0.0,0.0,1.4275671141347754,4.3412192756204195,0.0,-4.185063415486733,0.8791877938071881,-2.5808188131743353,1.8928682848135994,-8.40765351368122,14.49641024023821,4.248502510744192,0.0,-1.6737050904639021,0.0,1.8771428219000708,0.0,0.0,0.0,0.0,0.0,0.0,0.9101503311155703,0.6813766552873519,0.0,0.0,1.870910352165807,2.9364193254200526,0.0,0.0,1.5792740960693288,0.0,8.523951741390364,0.0,0.0,0.0,-4.95447966010047,-8.113828717033245,5.106944860438003,10.410106823441888,0.0,1.8236304973181046,4.100732405759259,4.91587663970403,2.3782547320740726,-8.75206120935224
0.0,-5.302999090598947,0.0,-1.0294927119494668,0.0,0.0,8.00786860820059,0.6215501488363468,8.262643810489774,0.0,-11.039271616981667,0.0,0.0,-0.17079905683520957,10.433953201268805,0.0,0.0,0.0,-2.509499107635809,-5.1581584196594035,0.0,0.0,6.469207367801699,-12.264660859245547,0.0,-12.56481108574328,11.085420526469134,0.0,0.0,0.0,-3.0618450052253907,0.9884573554442317,0.0,12.875275797435393,0.0,0.0,-0.08006851463730214,-5.975112823015592,5.732251290944825,0.27180351284456794,5.586814469442232,0.0,7.212198641296192,0.9689226894238079,0.0,2.7941104069811384,0.0,1.5736860791897131,0.0,10.357731134749137,-4.303227237268098,6.137379857867196,0.0,-2.3985721817097696,0.0,0.0,-1.4275671141347754,-4.3412192756204195,0.0,4.185063415486733,-0.8791877938071881,2.5808188131743353,-1.8928682848135994,8.40765351368122,-14.49641024023821,-4.248502510744192,0.0,1.6737050904639021,0.0,-1.8771428219000708,0.0,0.0,0.0,0.0,0.0,0.0,-0.9101503311155703,-0.6813766552873519,0.0,0.0,-1.870910352165807,-2.9364193254200526,0.0,0.0,-1.5792740960693288,0.0,-8.523951741390364,0.0,0.0,0.0,4.95447966010047,8.113828717033245,-5.106944860438003,-10.410106823441888,0.0,-1.8236304973181046,-4.100732405759259,-4.91587663970403,-2.3782547320740726,8.75206120935224
0.0,5.302999090598947,0.0,1.0294927119494668,0.0,0.0,-8.00786860820059,-0.6215501488363468,-8.262643810489774,0.0,11.039271616981667,0.0,0.0,0.17079905683520957,-10.433953201268805,0.0,0.0,0.0,2.509499107635809,5.1581584196594035,0.0,0.0,-6.469207367801699,12.264660859245547,0.0,12.56481108574328,-11.085420526469134,0.0,0.0,0.0,3.0618450052253907,-0.9884573554442317,0.0,-12.875275797435393,0.0,0.0,0.08006851463730214,5.975112823015592,-5.732251290944825,-0.27180351284456794,-5.586814469442232,0.0,-7.212198641296192,-0.9689226894238079,0.0,-2.7941104069811384,0.0,-1.5736860791897131,0.0,-10.357731134749137,4.303227237268098,-6.137379857867196,0.0,2.3985721817097696,0.0,0.0,1.4275671141347754,4.3412192756204195,0.0,-4.185063415486733,0.8791877938071881,-2.5808188131743353,1.8928682848135994,-8.40765351368122,14.49641024023821,4.248502510744192,0.0,-1.6737050904639021,0.0,1.8771428219000708,0.0,0.0,0.0,0.0,0.0,0.0,0.9101503311155703,0.6813766552873519,0.0,0.0,1.870910352165807,2.9364193254200526,0.0,0.0,1.5792740960693288,0.0,8.523951741390364,0.0,0.0,0.0,-4.95447966010047,-8.113828717033245,5.106944860438003,10.410106823441888,0.0,1.8236304973181046,4.100732405759259,4.91587663970403,2.3782547320740726,-8.75206120935224
0.0,5.302999090598947,0.0,1.0294927119494668,0.0,0.0,-8.00786860820059,-0.6215501488363468,-8.262643810489774,0.0,11.039271616981667,0.0,0.0,0.17079905683520957,-10.433953201268805,0.0,0.0,0.0,2.509499107635809,5.1581584196594035,0.0,0.0,-6.469207367801699,12.264660859245547,0.0,12.56481108574328,-11.085420526469134,0.0,0.0,0.0,3.0618450052253907,-0.9884573554442317,0.0,-12.875275797435393,0.0,0.0,0.08006851463730214,5.975112823015592,-5.732251290944825,-0.27180351284456794,-5.586814469442232,0.0,-7.212198641296192,-0.9689226894238079,0.0,-2.7941104069811384,0.0,-1.5736860791897131,0.0,-10.357731134749137,4.303227237268098,-6.137379857867196,0.0,2.3985721817097696,0.0,0.0,1.4275671141347754,4.3412192756204195,0.0,-4.185063415486733,0.8791877938071881,-2.5808188131743353,1.8928682848135994,-8.40765351368122,14.49641024023821,4.248502510744192,0.0,-1.6737050904639021,0.0,1.8771428219000708,0.0,0.0,0.0,0.0,0.0,0.0,0.9101503311155703,0.6813766552873519,0.0,0.0,1.870910352165807,2.9364193254200526,0.0,0.0,1.5792740960693288,0.0,8.523951741390364,0.0,0.0,0.0,-4.95447966010047,-8.113828717033245,5.106944860438003,10.410106823441888,0.0,1.8236304973181046,4.100732405759259,4.91587663970403,2.3782547320740726,-8.75206120935224
0.0,-5.302999090598947,0.0,-1.0294927119494668,0.0,0.0,8.00786860820059,0.6215501488363468,8.262643810489774,0.0,-11.039271616981667,0.0,0.0,-0.17079905683520957,10.433953201268805,0.0,0.0,0.0,-2.509499107635809,-5.1581584196594035,0.0,0.0,6.469207367801699,-12.264660859245547,0.0,-12.56481108574328,11.085420526469134,0.0,0.0,0.0,-3.0618450052253907,0.9884573554442317,0.0,12.875275797435393,0.0,0.0,-0.08006851463730214,-5.975112823015592,5.732251290944825,0.27180351284456794,5.586814469442232,0.0,7.212198641296192,0.9689226894238079,0.0,2.7941104069811384,0.0,1.5736860791897131,0.0,10.357731134749137,-4.303227237268098,6.137379857867196,0.0,-2.3985721817097696,0.0,0.0,-1.4275671141347754,-4.3412192756204195,0.0,4.185063415486733,-0.8791877938071881,2.5808188131743353,-1.8928682848135994,8.40765351368122,-14.49641024023821,-4.248502510744192,0.0,1.6737050904639021,0.0,-1.8771428219000708,0.0,0.0,0.0,0.0,0.0,0.0,-0.9101503311155703,-0.6813766552873519,0.0,0.0,-1.870910352165807,-2.9364193254200526,0.0,0.0,-1.5792740960693288,0.0,-8.523951741390364,0.0,0.0,0.0,4.95447966010047,8.113828717033245,-5.106944860438003,-10.410106823441888,0.0,-1.8236304973181046,-4.100732405759259,-4.91587663970403,-2.3782547320740726,8.75206120935224
0.0,-5.302999090598947,0.0,-1.0294927119494668,0.0,0.0,8.00786860820059,0.6215501488363468,8.262643810489774,0.0,-11.039271616981667,0.0,0.0,-0.17079905683520957,10.433953201268805,0.0,0.0,0.0,-2.509499107635809,-5.1581584196594035,0.0,0.0,6.469207367801699,-12.264660859245547,0.0,-12.56481108574328,11.085420526469134,0.0,0.0,0.0,-3.0618450052253907,0.9884573554442317,0.0,12.875275797435393,0.0,0.0,-0.08006851463730214,-5.975112823015592,5.732251290944825,0.27180351284456794,5.586814469442232,0.0,7.212198641296192,0.9689226894238079,0.0,2.7941104069811384,0.0,1.5736860791897131,0.0,10.357731134749137,-4.303227237268098,6.137379857867196,0.0,-2.3985721817097696,0.0,0.0,-1.4275671141347754,-4.3412192756204195,0.0,4.185063415486733,-0.8791877938071881,2.5808188131743353,-1.8928682848135994,8.40765351368122,-14.49641024023821,-4.248502510744192,0.0,1.6737050904639021,0.0,-1.8771428219000708,0.0,0.0,0.0,0.0,0.0,0.0,-0.9101503311155703,-0.6813766552873519,0.0,0.0,-1.870910352165807,-2.9364193254200526,0.0,0.0,-1.5792740960693288,0.0,-8.523951741390364,0.0,0.0,0.0,4.95447966010047,8.113828717033245,-5.106944860438003,-10.410106823441888,0.0,-1.8236304973181046,-4.100732405759259,-4.91587663970403,-2.3782547320740726,8.75206120935224
0.0,5.302999090598947,0.0,1.0294927119494668,0.0,0.0,-8.00786860820059,-0.6215501488363468,-8.262643810489774,0.0,11.039271616981667,0.0,0.0,0.17079905683520957,-10.433953201268805,0.0,0.0,0.0,2.509499107635809,5.1581584196594035,0.0,0.0,-6.469207367801699,12.264660859245547,0.0,12.56481108574328,-11.085420526469134,0.0,0.0,0.0,3.0618450052253907,-0.9884573554442317,0.0,-12.875275797435393,0.0,0.0,0.08006851463730214,5.975112823015592,-5.732251290944825,-0.27180351284456794,-5.586814469442232,0.0,-7.212198641296192,-0.9689226894238079,0.0,-2.7941104069811384,0.0,-1.5736860791897131,0.0,-10.357731134749137,4.303227237268098,-6.137379857867196,0.0,2.3985721817097696,0.0,0.0,1.4275671141347754,4.3412192756204195,0.0,-4.185063415486733,0.8791877938071881,-2.5808188131743353,1.8928682848135994,-8.40765351368122,14.49641024023821,4.248502510744192,0.0,-1.6737050904639021,0.0,1.8771428219000708,0.0,0.0,0.0,0.0,0.0,0.0,0.9101503311155703,0.6813766552873519,0.0,0.0,1.870910352165807,2.9364193254200526,0.0,0.0,1.5792740960693288,0.0,8.523951741390364,0.0,0.0,0.0,-4.95447966010047,-8.113828717033245,5.106944860438003,10.410106823441888,0.0,1.8236304973181046,4.100732405759259,4.91587663970403,2.3782547320740726,-8.75206120935224
0.0,5.302999090598947,0.0,1.0294927119494668,0.0,0.0,-8.00786860820059,-0.6215501488363468,-8.262643810489774,0.0,11.039271616981667,0.0,0.0,0.17079905683520957,-10.433953201268805,0.0,0.0,0.0,2.509499107635809,5.1581584196594035,0.0,0.0,-6.469207367801699,12.264660859245547,0.0,12.56481108574328,-11.085420526469134,0.0,0.0,0.0,3.0618450052253907,-0.9884573554442317,0.0,-12.875275797435393,0.0,0.0,0.08006851463730214,5.975112823015592,-5.732251290944825,-0.27180351284456794,-5.586814469442232,0.0,-7.212198641296192,-0.9689226894238079,0.0,-2.7941104069811384,0.0,-1.5736860791897131,0.0,-10.357731134749137,4.303227237268098,-6.137379857867196,0.0,2.3985721817097696,0.0,0.0,1.4275671141347754,4.3412192756204195,0.0,-4.185063415486733,0.8791877938071881,-2.5808188131743353,1.8928682848135994,-8.40765351368122,14.49641024023821,4.248502510744192,0.0,-1.6737050904639021,0.0,1.8771428219000708,0.0,0.0,0.0,0.0,0.0,0.0,0.9101503311155703,0.6813766552873519,0.0,0.0,1.870910352165807,2.9364193254200526,0.0,0.0,1.5792740960693288,0.0,8.523951741390364,0.0,0.0,0.0,-4.95447966010047,-8.113828717033245,5.106944860438003,10.410106823441888,0.0,1.8236304973181046,4.100732405759259,4.91587663970403,2.3782547320740726,-8.75206120935224

0.0,0.0,0.0,0.0,0.0,0.0,0.0,0.0,0.0,0.0,0.0,0.0,0.0,0.0,0.0,0.0,0.0,0.0,0.0,0.0,0.0,0.0,0.0,0.0,0.0,0.0,0.0,0.0,0.0,0.0,0.0,0.0,0.0,0.0,0.0,0.0,0.0,0.0,0.0,0.0
-2.3095391818072613,0.0,2.7248771225564767,0.0,0.0,-0.3996103982011904,15.241632377271557,-3.5789270168845415,1.8929350774221203,10.504840456417918,7.226898006491495,-5.364238725437251,12.539537111797346,0.0,5.812607639554116,0.0,1.2107431498836565,0.41959062243140677,0.1725078085371335,0.0,6.386855499316394,0.0,0.0,5.404288332742688,0.0,-9.368998848579697,10.422044129884156,13.639346946506153,0.0,8.65450109301193,0.0,0.0,-2.919445727389205,-6.78437111955205,-4.434953066594921,-8.585054844072179,0.0,-0.7291543779455072,0.0,0.0
0.0,0.0,0.0,0.0,0.0,0.0,0.0,0.0,0.0,0.0,0.0,0.0,0.0,0.0,0.0,0.0,0.0,0.0,0.0,0.0,0.0,0.0,0.0,0.0,0.0,0.0,0.0,0.0,0.0,0.0,0.0,0.0,0.0,0.0,0.0,0.0,0.0,0.0,0.0,0.0
-2.538481249675678,0.0,2.994991181689803,0.0,0.0,-0.4392233355466876,16.752518558216188,-3.9337020986194697,2.080579640623061,11.54617368672846,7.943292422708148,-5.895989784702862,13.782567573935319,0.0,6.388805013987026,0.0,1.3307627808885645,0.4611841773337626,0.18960831703729028,0.0,7.019977429746709,0.0,0.0,5.940009465339832,0.0,-10.297737355008575,11.45516985180607,14.991400342657839,0.0,9.512412226198748,0.0,0.0,-3.208847157390091,-7.456898334302128,-4.874585065031547,-9.436081847315148,0.0,-0.8014346459734885,0.0,0.0
0.0,0.0,0.0,0.0,0.0,0.0,0.0,0.0,0.0,0.0,0.0,0.0,0.0,0.0,0.0,0.0,0.0,0.0,0.0,0.0,0.0,0.0,0.0,0.0,0.0,0.0,0.0,0.0,0.0,0.0,0.0,0.0,0.0,0.0,0.0,0.0,0.0,0.0,0.0,0.0
0.0,0.0,0.0,0.0,0.0,0.0,0.0,0.0,0.0,0.0,0.0,0.0,0.0,0.0,0.0,0.0,0.0,0.0,0.0,0.0,0.0,0.0,0.0,0.0,0.0,0.0,0.0,0.0,0.0,0.0,0.0,0.0,0.0,0.0,0.0,0.0,0.0,0.0,0.0,0.0
-0.38646583035077603,0.0,0.4559662412605496,0.0,0.0,-0.06686864876515243,2.550452557368691,-0.5988783443209569,0.3167535464471288,1.757823344878319,1.2093101346535995,-0.8976227766803491,2.0982985091999864,0.0,0.9726504125232949,0.0,0.2025992286457559,0.07021203172593983,0.02886652627219194,0.0,1.0687419522115378,0.0,0.0,0.9043244619621751,0.0,-1.567757736302386,1.7439686541521693,2.28233475519521,0.0,1.4481975354777412,0.0,0.0,-0.4885243022015341,-1.1352600721299715,-0.7421211265647893,-1.4365767747334934,0.0,-0.12201276096390148,0.0,0.0
-0.232912260597212,0.0,0.27479823484424415,0.0,0.0,-0.04029988403589624,1.5370871731234534,-0.3609274042983435,0.1908985963603098,1.0593914825912365,0.7288177507689022,-0.5409724059961688,1.264586441554075,0.0,0.5861894857457132,0.0,0.12210094821657158,0.042314848418989026,0.017397056509608017,0.0,0.6441011974040022,0.0,0.0,0.5450113262478878,0.0,-0.9448442003256221,1.0510416439160455,1.3754999938535535,0.0,0.8727885760903584,0.0,0.0,-0.2944200771363392,-0.6841898274047883,-0.44725586494482095,-0.8657850651917482,0.0,-0.07353371435714173,0.0,0.0
-2.3218190125674076,0.0,2.739365307113278,0.0,0.0,-0.4017351285796832,15.322672208756384,-3.597956188771492,1.9029998221875668,10.560694742841502,7.265323457395129,-5.392760408128014,12.606209889967298,0.0,5.843513301883259,0.0,1.2171806769417355,0.4218215877566931,0.17342503337156218,0.0,6.420814440233665,0.0,0.0,5.433022959385039,0.0,-9.418813859798746,10.477458187847706,13.711867418772378,0.0,8.700517116283088,0.0,0.0,-2.934968434138747,-6.8204436529034576,-4.458533733039541,-8.63070162130905,0.0,-0.7330312952239506,0.0,0.0
0.0,0.0,0.0,0.0,0.0,0.0,0.0,0.0,0.0,0.0,0.0,0.0,0.0,0.0,0.0,0.0,0.0,0.0,0.0,0.0,0.0,0.0,0.0,0.0,0.0,0.0,0.0,0.0,0.0,0.0,0.0,0.0,0.0,0.0,0.0,0.0,0.0,0.0,0.0,0.0
-1.2830517349164483,0.0,1.5137904336372472,0.0,0.0,-0.22200134933475155,8.467404674777661,-1.9882531347919228,1.0516096259818026,5.835906088452025,4.014863267241575,-2.9800731926931374,6.966270575999019,0.0,3.2291620662103555,0.0,0.6726216689603108,0.23310125253818556,0.09583576012640034,0.0,3.548182292645092,0.0,0.0,3.002322530803848,0.0,-5.204895557430543,5.789909046600273,7.5772638544923865,0.0,4.807960276099761,0.0,0.0,-1.6218819472852446,-3.76901989965232,-2.4638136781532674,-4.7693797961116005,0.0,-0.40507768693182566,0.0,0.0
0.0,0.0,0.0,0.0,0.0,0.0,0.0,0.0,0.0,0.0,0.0,0.0,0.0,0.0,0.0,0.0,0.0,0.0,0.0,0.0,0.0,0.0,0.0,0.0,0.0,0.0,0.0,0.0,0.0,0.0,0.0,0.0,0.0,0.0,0.0,0.0,0.0,0.0,0.0,0.0
0.0,0.0,0.0,0.0,0.0,0.0,0.0,0.0,0.0,0.0,0.0,0.0,0.0,0.0,0.0,0.0,0.0,0.0,0.0,0.0,0.0,0.0,0.0,0.0,0.0,0.0,0.0,0.0,0.0,0.0,0.0,0.0,0.0,0.0,0.0,0.0,0.0,0.0,0.0,0.0
-3.8379911725052547,0.0,4.528199575445019,0.0,0.0,-0.6640723798144554,25.328537822321433,-5.947459305321169,3.145678659405373,17.456939140889045,12.009655853426827,-8.914289498794542,20.838197126718665,0.0,9.659388758405157,0.0,2.0120124213647017,0.697275507444548,0.28667339855895024,0.0,10.613673593214937,0.0,0.0,8.980843918183211,0.0,-15.569398068372582,17.319348242732566,22.66586061487122,0.0,14.382046019857846,0.0,0.0,-4.851533595355573,-11.274264871949399,-7.370003009321926,-14.266640274636497,0.0,-1.2117084169832282,0.0,0.0
-0.8584114340480012,0.0,1.0127845835236837,0.0,0.0,-0.14852752344818354,5.665022533182549,-1.3302185549036418,0.7035676758244716,3.9044477927336168,2.686099430716963,-1.9937846879372372,4.6607055291493165,0.0,2.160434816924624,0.0,0.45001001573921684,0.15595378972206397,0.0641178450131169,0.0,2.3738717365839803,0.0,0.0,2.008670359118281,0.0,-3.482277244116718,3.8736739855803926,5.069483758516143,0.0,3.2167121271391146,0.0,0.0,-1.0851020035574432,-2.5216206712246776,-1.6483870253512047,-3.1909002878721235,0.0,-0.271012702510113,0.0,0.0
0.0,0.0,0.0,0.0,0.0,0.0,0.0,0.0,0.0,0.0,0.0,0.0,0.0,0.0,0.0,0.0,0.0,0.0,0.0,0.0,0.0,0.0,0.0,0.0,0.0,0.0,0.0,0.0,0.0,0.0,0.0,0.0,0.0,0.0,0.0,0.0,0.0,0.0,0.0,0.0
0.0,0.0,0.0,0.0,0.0,0.0,0.0,0.0,0.0,0.0,0.0,0.0,0.0,0.0,0.0,0.0,0.0,0.0,0.0,0.0,0.0,0.0,0.0,0.0,0.0,0.0,0.0,0.0,0.0,0.0,0.0,0.0,0.0,0.0,0.0,0.0,0.0,0.0,0.0,0.0
0.0,0.0,0.0,0.0,0.0,0.0,0.0,0.0,0.0,0.0,0.0,0.0,0.0,0.0,0.0,0.0,0.0,0.0,0.0,0.0,0.0,0.0,0.0,0.0,0.0,0.0,0.0,0.0,0.0,0.0,0.0,0.0,0.0,0.0,0.0,0.0,0.0,0.0,0.0,0.0
-0.5216089503404157,0.0,0.6154129390396763,0.0,0.0,-0.090251926441763,3.442319545131917,-0.8082999324398955,0.4275189988437724,2.3725160617010737,1.63219343195272,-1.2115122155066511,2.8320518838398936,0.0,1.3127762427637075,0.0,0.27344609198120384,0.09476445598461924,0.03896085316299642,0.0,1.4424700040669651,0.0,0.0,1.2205574110992143,0.0,-2.115986467622549,2.3538165283415564,3.080443709350132,0.0,1.9546172961280655,0.0,0.0,-0.6593562185196034,-1.5322488253350184,-1.0016332401277432,-1.938932875053989,0.0,-0.16467936665125382,0.0,0.0
-3.372884191206271,0.0,3.9794496850486283,0.0,0.0,-0.5835967648228968,22.259098827346534,-5.226716416772304,2.764469573805095,15.34141987531474,10.5542656429327,-7.8340112769707035,18.312920093578743,0.0,8.48881567871707,0.0,1.7681866850417727,0.6127761712489521,0.2519328811816161,0.0,9.327455500584298,0.0,0.0,7.892500298680577,0.0,-13.682620478028063,15.220502930906312,19.919098171891203,0.0,12.639157694027547,0.0,0.0,-4.263600469982198,-9.90799302158068,-6.476869154198278,-12.537737394674075,0.0,-1.0648675258225104,0.0,0.0
0.0,0.0,0.0,0.0,0.0,0.0,0.0,0.0,0.0,0.0,0.0,0.0,0.0,0.0,0.0,0.0,0.0,0.0,0.0,0.0,0.0,0.0,0.0,0.0,0.0,0.0,0.0,0.0,0.0,0.0,0.0,0.0,0.0,0.0,0.0,0.0,0.0,0.0,0.0,0.0
0.0,0.0,0.0,0.0,0.0,0.0,0.0,0.0,0.0,0.0,0.0,0.0,0.0,0.0,0.0,0.0,0.0,0.0,0.0,0.0,0.0,0.0,0.0,0.0,0.0,0.0,0.0,0.0,0.0,0.0,0.0,0.0,0.0,0.0,0.0,0.0,0.0,0.0,0.0,0.0
-2.022808036868159,0.0,2.386581438584752,0.0,0.0,-0.3499984462116441,13.349371472281778,-3.1346003523757475,1.6579256667482953,9.200656074010382,6.329672812789476,-4.6982641779659655,10.982743504919249,0.0,5.090967731169045,0.0,1.0604284150967551,0.36749810955127327,0.151090825511939,0.0,5.593922257782664,0.0,0.0,4.73334159434799,0.0,-8.205830114337122,9.128138977935574,11.94601106504557,0.0,7.580037829161094,0.0,0.0,-2.5569941948082198,-5.94208599439617,-3.8843500802706705,-7.51921338782135,0.0,-0.6386292761102261,0.0,0.0
-2.5029027095899585,0.0,2.9530143446232535,0.0,0.0,-0.43306732196481545,16.517720624161562,-3.8785685900229843,2.0514189028177703,11.38434621473022,7.831961780455021,-5.813353480445407,13.589395521561073,0.0,6.29926156933128,0.0,1.312111236012873,0.45472036762775625,0.1869508275997934,0.0,6.921587674684702,0.0,0.0,5.856756195338667,0.0,-10.153407566744749,11.29461786040835,14.781285677402595,0.0,9.379089303390106,0.0,0.0,-3.163872983469076,-7.352384835793522,-4.8062644421553165,-9.303828746647289,0.0,-0.7902019946858356,0.0,0.0
0.0,0.0,0.0,0.0,0.0,0.0,0.0,0.0,0.0,0.0,0.0,0.0,0.0,0.0,0.0,0.0,0.0,0.0,0.0,0.0,0.0,0.0,0.0,0.0,0.0,0.0,0.0,0.0,0.0,0.0,0.0,0.0,0.0,0.0,0.0,0.0,0.0,0.0,0.0,0.0
-0.4024104710490732,0.0,0.47477829996404153,0.0,0.0,-0.06962748666182561,2.6556780299761567,-0.6235866089908805,0.32982202777554726,1.8303468629852733,1.2592033310905515,-0.9346565104098885,2.1848692049238476,0.0,1.0127796041226094,0.0,0.2109579803200674,0.07310880947612652,0.03005748897438037,0.0,1.1128356471489211,0.0,0.0,0.941634690935278,0.0,-1.6324396094310618,1.8159205613992089,2.3764983390540815,0.0,1.5079466453599615,0.0,0.0,-0.5086796273538763,-1.182098142995915,-0.7727392402204027,-1.4958464402763791,0.0,-0.12704671087976038,0.0,0.0
-0.1494903696652338,0.0,0.17637409728833967,0.0,0.0,-0.025865725344577657,0.986550596901745,-0.23165449063319304,0.12252468661505304,0.6799505699987171,0.46777801521338885,-0.3472130009115812,0.8116511090349364,0.0,0.3762347361762238,0.0,0.07836820542881007,0.02715899247323145,0.011165974698110826,0.0,0.41340428303282106,0.0,0.0,0.3498053061853771,0.0,-0.6064305435040726,0.6745913825218586,0.88283889404728,0.0,0.5601829914182822,0.0,0.0,-0.18896800904823144,-0.43913441893388505,-0.2870627952951374,-0.5556879191945048,0.0,-0.047196236530960924,0.0,0.0
0.0,0.0,0.0,0.0,0.0,0.0,0.0,0.0,0.0,0.0,0.0,0.0,0.0,0.0,0.0,0.0,0.0,0.0,0.0,0.0,0.0,0.0,0.0,0.0,0.0,0.0,0.0,0.0,0.0,0.0,0.0,0.0,0.0,0.0,0.0,0.0,0.0,0.0,0.0,0.0
0.0,0.0,0.0,0.0,0.0,0.0,0.0,0.0,0.0,0.0,0.0,0.0,0.0,0.0,0.0,0.0,0.0,0.0,0.0,0.0,0.0,0.0,0.0,0.0,0.0,0.0,0.0,0.0,0.0,0.0,0.0,0.0,0.0,0.0,0.0,0.0,0.0,0.0,0.0,0.0
0.0,0.0,0.0,0.0,0.0,0.0,0.0,0.0,0.0,0.0,0.0,0.0,0.0,0.0,0.0,0.0,0.0,0.0,0.0,0.0,0.0,0.0,0.0,0.0,0.0,0.0,0.0,0.0,0.0,0.0,0.0,0.0,0.0,0.0,0.0,0.0,0.0,0.0,0.0,0.0
-2.725224405989188,0.0,3.2153174521601247,0.0,0.0,-0.47153476271086914,17.98491615507125,-4.223084557515762,2.23363730417729,12.395566967801205,8.527640051325545,-6.329727769621322,14.796480980303695,0.0,6.85879690915503,0.0,1.4286602312004093,0.4951111519482726,0.20355683668515456,0.0,7.5364014697698485,0.0,0.0,6.376985754304506,0.0,-11.055289523970835,12.297868443535647,16.09424142840745,0.0,10.21219201913696,0.0,0.0,-3.444905724446759,-8.005464423350233,-5.233183498988461,-10.13024640245038,0.0,-0.8603921172517226,0.0,0.0
-1.3410028741635818,0.0,1.5821632652412692,0.0,0.0,-0.23202840495397603,8.849848916125282,-2.0780558536825837,1.0991073021942634,6.0994943734459275,4.196201161830267,-3.114673093738948,7.280913629896777,0.0,3.375012475401146,0.0,0.7030017315390786,0.24362965351914934,0.10016433965971244,0.0,3.7084417744100096,0.0,0.0,3.137927359753906,0.0,-5.439983215244346,6.051419799640655,7.919503423477931,0.0,5.025119699895784,0.0,0.0,-1.6951369096626268,-3.9392538747025867,-2.575095870177231,-4.984796669153689,0.0,-0.42337368607391923,0.0,0.0
0.0,0.0,0.0,0.0,0.0,0.0,0.0,0.0,0.0,0.0,0.0,0.0,0.0,0.0,0.0,0.0,0.0,0.0,0.0,0.0,0.0,0.0,0.0,0.0,0.0,0.0,0.0,0.0,0.0,0.0,0.0,0.0,0.0,0.0,0.0,0.0,0.0,0.0,0.0,0.0
-2.3226394864731215,0.0,2.7403333316408314,0.0,0.0,-0.40187709192317556,15.32808686538769,-3.599227618263115,1.9036722956612664,10.56442663340481,7.267890844551965,-5.394666077420361,12.61066461542552,0.0,5.8455782561953455,0.0,1.2176107987464775,0.4219706491623185,0.17348631752580018,0.0,6.423083398612043,0.0,0.0,5.434942856475722,0.0,-9.42214223765805,10.481160664653522,13.716712856489451,0.0,8.703591665686588,0.0,0.0,-2.9360055800150064,-6.8228538304462845,-4.460109269533085,-8.633751499628573,0.0,-0.7332903305090213,0.0,0.0
0.0,0.0,0.0,0.0,0.0,0.0,0.0,0.0,0.0,0.0,0.0,0.0,0.0,0.0,0.0,0.0,0.0,0.0,0.0,0.0,0.0,0.0,0.0,0.0,0.0,0.0,0.0,0.0,0.0,0.0,0.0,0.0,0.0,0.0,0.0,0.0,0.0,0.0,0.0,0.0
0.0,0.0,0.0,0.0,0.0,0.0,0.0,0.0,0.0,0.0,0.0,0.0,0.0,0.0,0.0,0.0,0.0,0.0,0.0,0.0,0.0,0.0,0.0,0.0,0.0,0.0,0.0,0.0,0.0,0.0,0.0,0.0,0.0,0.0,0.0,0.0,0.0,0.0,0.0,0.0
-0.07938684630800803,0.0,0.09366344725415045,0.0,0.0,-0.013735990934890857,0.5239075987750849,-0.12302009477694219,0.06506672294026837,0.361087684232841,0.24841346959787966,-0.1843874304494439,0.4310272427111802,0.0,0.19979942014620694,0.0,0.04161742789012733,0.014422780318096956,0.005929689780171729,0.0,0.21953830439842262,0.0,0.0,0.18576407391360233,0.0,-0.32204488129535924,0.3582416882431735,0.46883150903574694,0.0,0.2974851232468775,0.0,0.0,-0.10035144287245054,-0.23320229057248967,-0.15244466959226582,-0.2950980155785271,0.0,-0.02506355683105354,0.0,0.0
-2.9845140791289047,0.0,3.5212367039394707,0.0,0.0,-0.5163986257485761,19.696079104091215,-4.624887143810371,2.446155247741863,13.574934986229042,9.338996722248494,-6.9319655306077514,16.20428237404191,0.0,7.511372603398084,0.0,1.5645891637175122,0.5422181749421822,0.22292411724137376,0.0,8.253447401639452,0.0,0.0,6.983719844978434,0.0,-12.107137731713145,13.467941000508132,17.625517381401398,0.0,11.183824272562681,0.0,0.0,-3.7726690005006147,-8.767139039613136,-5.731091280802984,-11.094081994390464,0.0,-0.9422535560249496,0.0,0.0
-0.2615341722231345,0.0,0.30856739226216673,0.0,0.0,-0.04525221980582417,1.7259753540962897,-0.4052807253416946,0.21435757074202533,1.1895770267709762,0.8183800486076827,-0.6074509346780993,1.4199877986174303,0.0,0.6582246101055839,0.0,0.13710557931815082,0.047514797313079615,0.019534930285305428,0.0,0.7232529239081281,0.0,0.0,0.6119861861157011,0.0,-1.0609533614863254,1.1802011006582274,1.5445311954081042,0.0,0.9800430307460273,0.0,0.0,-0.33060050579684086,-0.7682679292836786,-0.5022178399297456,-0.9721788787223118,0.0,-0.08257005906677328,0.0,0.0
-2.596336197850324,0.0,3.0632505236181014,0.0,0.0,-0.4492337476064164,17.134327993721858,-4.0233557571127925,2.1279984771013094,11.809324450732127,8.124329320857605,-6.030366268072911,14.09668836281468,0.0,6.534413331176434,0.0,1.3610924166622747,0.4716951025895708,0.1939297117125812,0.0,7.1799709023938165,0.0,0.0,6.0753892085693915,0.0,-10.532434799028008,11.716246532278964,15.33307184013321,0.0,9.729211194650027,0.0,0.0,-3.2819805264133537,-7.626849743921472,-4.985682543630744,-9.651141157411642,0.0,-0.8197002762254693,0.0,0.0
-0.7414412703666357,0.0,0.8747789910887342,0.0,0.0,-0.12828864027418518,4.893086621471554,-1.1489582921350918,0.6076970677012525,3.372413992522308,2.3200820669992557,-1.7221045680748333,4.025621387685334,0.0,1.866046363864406,0.0,0.3886900669227771,0.13470297736452608,0.05538092175160623,0.0,2.050399617535682,0.0,0.0,1.734961865301976,0.0,-3.0077698889345754,3.345833532658083,4.37869805658606,0.0,2.7783916096071266,0.0,0.0,-0.9372421849055002,-2.1780157622539846,-1.423772006820606,-2.756096982418427,0.0,-0.23408355767935518,0.0,0.0
0.0,0.0,0.0,0.0,0.0,0.0,0.0,0.0,0.0,0.0,0.0,0.0,0.0,0.0,0.0,0.0,0.0,0.0,0.0,0.0,0.0,0.0,0.0,0.0,0.0,0.0,0.0,0.0,0.0,0.0,0.0,0.0,0.0,0.0,0.0,0.0,0.0,0.0,0.0,0.0
-1.6391323555408144,0.0,1.9339071151675367,0.0,0.0,-0.2836125658580765,10.817332296261164,-2.5400457016295745,1.3434589708552909,7.455523602952979,5.129093477151579,-3.8071219258678055,8.89959398193364,0.0,4.1253395166915094,0.0,0.859291882491787,0.29779298430028733,0.12243270553019478,0.0,4.532896251147883,0.0,0.0,3.8355460408073387,0.0,-6.649391044197149,7.396761171550878,9.680153973820213,0.0,6.142295776735195,0.0,0.0,-2.0719968683382084,-4.815022105558054,-3.14758681040093,-6.093008198284583,0.0,-0.5174974048889975,0.0,0.0
-1.0221941748587893,0.0,1.2060213326641267,0.0,0.0,-0.1768662010464852,6.7458945724378285,-1.5840209067340363,0.8378066173411387,4.649406603255222,3.1986004406097566,-2.3741937876122567,5.549956412116218,0.0,2.5726403417163426,0.0,0.5358707939705951,0.18570938023191808,0.07635136844326075,0.0,2.8268004883802296,0.0,0.0,2.3919196073842186,0.0,-4.146686976655976,4.61276123116143,6.036728498663815,0.0,3.830452703843367,0.0,0.0,-1.2921367344018808,-3.002739547834635,-1.9628951204447582,-3.799716030618166,0.0,-0.32272124395198176,0.0,0.0
0.0,0.0,0.0,0.0,0.0,0.0,0.0,0.0,0.0,0.0,0.0,0.0,0.0,0.0,0.0,0.0,0.0,0.0,0.0,0.0,0.0,0.0,0.0,0.0,0.0,0.0,0.0,0.0,0.0,0.0,0.0,0.0,0.0,0.0,0.0,0.0,0.0,0.0,0.0,0.0
-1.6006946542601328,0.0,1.888556937223628,0.0,0.0,-0.2769618429624848,10.563665540155693,-2.4804815562520015,1.3119548190215302,7.280691358215289,5.008816086342344,-3.7178448062801333,8.690898244923401,0.0,4.028600185369078,0.0,0.8391414629234806,0.29080973018092093,0.119561655034335,0.0,4.426599702581214,0.0,0.0,3.7456023748998897,0.0,-6.493462631344265,7.22330690753398,9.45315408235999,0.0,5.998258762612658,0.0,0.0,-2.023408481677136,-4.702109697522368,-3.0737758084008586,-5.9501269793063045,0.0,-0.5053620757342703,0.0,0.0
0.0,0.0,0.0,0.0,0.0,0.0,0.0,0.0,0.0,0.0,0.0,0.0,0.0,0.0,0.0,0.0,0.0,0.0,0.0,0.0,0.0,0.0,0.0,0.0,0.0,0.0,0.0,0.0,0.0,0.0,0.0,0.0,0.0,0.0,0.0,0.0,0.0,0.0,0.0,0.0
-1.0926918329171815,0.0,1.2891969969482902,0.0,0.0,-0.1890641310192171,7.2111386332654925,-1.6932660648329925,0.8955876200909667,4.97006219389777,3.4191982934185736,-2.537934792912517,5.932720214731706,0.0,2.7500676090382274,0.0,0.572828191034648,0.19851719767779064,0.0816170927030834,0.0,3.021756416647631,0.0,0.0,2.5568831091649162,0.0,-4.432671506548123,4.9308895006992115,6.453063508153519,0.0,4.094627506993364,0.0,0.0,-1.3812515189575014,-3.2098294639074796,-2.0982700936241128,-4.06177101785434,0.0,-0.34497835758447604,0.0,0.0
0.0,0.0,0.0,0.0,0.0,0.0,0.0,0.0,0.0,0.0,0.0,0.0,0.0,0.0,0.0,0.0,0.0,0.0,0.0,0.0,0.0,0.0,0.0,0.0,0.0,0.0,0.0,0.0,0.0,0.0,0.0,0.0,0.0,0.0,0.0,0.0,0.0,0.0,0.0,0.0
-0.5653113353675786,0.0,0.6669745796040445,0.0,0.0,-0.0978135766707842,3.730730190788407,-0.8760223801507032,0.4633381692811362,2.571294495897652,1.7689448158303394,-1.3130173244060075,3.0693319799036196,0.0,1.4227656376510647,0.0,0.2963564473118333,0.10270418313007305,0.042225141869708244,0.0,1.5633256363691461,0.0,0.0,1.3228203609446936,0.0,-2.2932718751293724,2.551028244393876,3.338535018850598,0.0,2.118382579680797,0.0,0.0,-0.7145995944490082,-1.6606264693123838,-1.0855538888963265,-2.101384058056375,0.0,-0.17847683136639253,0.0,0.0
-2.252841457883697,0.0,2.6579831152855333,0.0,0.0,-0.3898002160606704,14.867459957302144,-3.4910666257102645,1.8464647203611388,10.246953277559578,7.049482238348875,-5.232550062733145,12.231699418938794,0.0,5.6699118040301,0.0,1.1810201725056615,0.40928993844261363,0.16827285111353013,0.0,6.230062242595556,0.0,0.0,5.271616477548868,0.0,-9.138995861688914,10.16618954839445,13.304509618885852,0.0,8.442038573417957,0.0,0.0,-2.8477751841201293,-6.6178191061627984,-4.326077778154481,-8.374297185898582,0.0,-0.7112540998536403,0.0,0.0
-0.7085278774976834,0.0,0.8359465902527626,0.0,0.0,-0.12259376653741572,4.675877128621674,-1.0979547707902617,0.580720726979524,3.22270882895925,2.217091074170387,-1.6456584536274457,3.846919629946618,0.0,1.7832105149033974,0.0,0.3714356876641709,0.12872336415467078,0.052922501768923075,0.0,1.9593801250316696,0.0,0.0,1.6579450012999264,0.0,-2.8742516778900837,3.197308304921522,4.184322837467667,0.0,2.655055752479049,0.0,0.0,-0.8956369742461368,-2.0813312488300317,-1.360569202648226,-2.6337508082940557,0.0,-0.2236923312855872,0.0,0.0
0.0,0.0,0.0,0.0,0.0,0.0,0.0,0.0,0.0,0.0,0.0,0.0,0.0,0.0,0.0,0.0,0.0,0.0,0.0,0.0,0.0,0.0,0.0,0.0,0.0,0.0,0.0,0.0,0.0,0.0,0.0,0.0,0.0,0.0,0.0,0.0,0.0,0.0,0.0,0.0
-1.020258132415586,0.0,1.2037371203834522,0.0,0.0,-0.17653121530657778,6.733117804059727,-1.581020760791332,0.8362198061361217,4.64060059678306,3.192542270484961,-2.3696970490724953,5.539444758424521,0.0,2.56776774410704,0.0,0.5348558511870056,0.18535764545287803,0.07620675845277315,0.0,2.821446509793208,0.0,0.0,2.3873892960260408,0.0,-4.138833124439891,4.604024631263348,6.025294895461055,0.0,3.8231978014053363,0.0,0.0,-1.2896894189878894,-2.9970523395199367,-1.959177384266832,-3.792519343639967,0.0,-0.32211000780822197,0.0,0.0
0.0,0.0,0.0,0.0,0.0,0.0,0.0,0.0,0.0,0.0,0.0,0.0,0.0,0.0,0.0,0.0,0.0,0.0,0.0,0.0,0.0,0.0,0.0,0.0,0.0,0.0,0.0,0.0,0.0,0.0,0.0,0.0,0.0,0.0,0.0,0.0,0.0,0.0,0.0,0.0
0.0,0.0,0.0,0.0,0.0,0.0,0.0,0.0,0.0,0.0,0.0,0.0,0.0,0.0,0.0,0.0,0.0,0.0,0.0,0.0,0.0,0.0,0.0,0.0,0.0,0.0,0.0,0.0,0.0,0.0,0.0,0.0,0.0,0.0,0.0,0.0,0.0,0.0,0.0,0.0
-0.2350098088716521,0.0,0.27727299749451756,0.0,0.0,-0.04066281448877529,1.5509297872451064,-0.36417782422962125,0.19261778031551202,1.068932091447842,0.7353812971085701,-0.5458442651838622,1.2759749837525867,0.0,0.5914685583937915,0.0,0.12320055814085151,0.04269592512597242,0.017553729952940272,0.0,0.6499018081220269,0.0,0.0,0.54991955891881,0.0,-0.9533532256423918,1.0605070562601955,1.3878873951487964,0.0,0.8806486868764338,0.0,0.0,-0.2970715490819309,-0.6903514660758594,-0.45128373692263235,-0.8735821041491327,0.0,-0.07419594018959685,0.0,0.0
-2.6819516441780826,0.0,3.164262696467845,0.0,0.0,-0.4640474484817728,17.69934077593523,-4.156027866050676,2.1981702597666923,12.19874265647754,8.392233023581014,-6.229220522767814,14.561533503796408,0.0,6.749888782430369,0.0,1.4059750997455946,0.4872494775477372,0.20032463808545742,0.0,7.416733927897883,0.0,0.0,6.275728116580296,0.0,-10.87974694873474,12.102595448485442,15.838687326392463,0.0,10.050036656135585,0.0,0.0,-3.390205427271933,-7.878348816129928,-5.150087845446,-9.96939222152581,0.0,-0.8467302906982237,0.0,0.0
0.0,0.0,0.0,0.0,0.0,0.0,0.0,0.0,0.0,0.0,0.0,0.0,0.0,0.0,0.0,0.0,0.0,0.0,0.0,0.0,0.0,0.0,0.0,0.0,0.0,0.0,0.0,0.0,0.0,0.0,0.0,0.0,0.0,0.0,0.0,0.0,0.0,0.0,0.0,0.0
-2.6491250299591522,0.0,3.1255326801941417,0.0,0.0,-0.45836758971039715,17.48270397234399,-4.105158819348016,2.171265044207893,12.049432201902615,8.289513574295457,-6.1529759642839075,14.383302906759805,0.0,6.667271336451236,0.0,1.3887662129631055,0.4812856300404355,0.19787269991302497,0.0,7.3259544151709965,0.0,0.0,6.198914313366102,0.0,-10.746580768553608,11.954461818746948,15.644824592242724,0.0,9.927025983324524,0.0,0.0,-3.3487099118976853,-7.781919218739286,-5.087051680247776,-9.847368622344353,0.0,-0.8363664615588837,0.0,0.0
-0.7254463056862761,0.0,0.8559075583471147,0.0,0.0,-0.1255210950186287,4.787529039480365,-1.1241720440040437,0.5945873400360618,3.2996615779294824,2.270031399198098,-1.6849539496197505,3.938777460207859,0.0,1.825790517751112,0.0,0.380304933614832,0.13179705689395468,0.054186200169754346,0.0,2.0061667554414413,0.0,0.0,1.6975338789375896,0.0,-2.942883868877494,3.2736545330256974,4.2842372765347685,0.0,2.7184539214313688,0.0,0.0,-0.91702324613899,-2.1310298625167174,-1.3930572572211952,-2.6966402517894057,0.0,-0.22903371976639042,0.0,0.0
-1.5530402870864985,0.0,1.8323326064462084,0.0,0.0,-0.2687163969478474,10.249174081706531,-2.4066350056094636,1.2728965411079523,7.063937501794954,4.859698351583561,-3.6071606473610456,8.432161042965477,0.0,3.908664511242594,0.0,0.8141593370206115,0.28215201796652445,0.11600217853222403,0.0,4.294815163290047,0.0,0.0,3.634091843903321,0.0,-6.300145403952522,7.008261446700241,9.171723720616237,0.0,5.819684276394902,0.0,0.0,-1.9631694782722942,-4.562122935262574,-2.982266262471455,-5.7729854270140155,0.0,-0.4903169140298962,0.0,0.0
-1.104442198056265,0.0,1.3030604989842758,0.0,0.0,-0.19109725006271572,7.288684295690008,-1.7114747618690898,0.9052184064051803,5.023508228527993,3.4559669661772405,-2.565226715133891,5.996518283584302,0.0,2.779640721593755,0.0,0.5789881532525847,0.20065197116911815,0.08249476984128559,0.0,3.0542511605336404,0.0,0.0,2.5843787939001386,0.0,-4.480338659513381,4.983914288062183,6.522457137905528,0.0,4.138659471785539,0.0,0.0,-1.3961049380165003,-3.2443466691238934,-2.120834039851,-4.10544965727797,0.0,-0.3486881150335428,0.0,0.0
-0.012732002444710741,0.0,0.01502167292038637,0.0,0.0,-0.0022029678504298204,0.0840239049492768,-0.01972986987506238,0.010435351875934723,0.057910970043707585,0.03984036461088438,-0.029571916815386057,0.06912782360246118,0.0,0.032043680081251545,0.0,0.006674571648606023,0.002313114612930693,0.0009509991678546766,0.0,0.03520938742752916,0.0,0.0,0.029792701854297374,0.0,-0.051649314800221315,0.05745453135665486,0.07519084327951726,0.0,0.04771043935602533,0.0,0.0,-0.016094288605761214,-0.03740080720880804,-0.024448960957604654,-0.04732759683131656,0.0,-0.004019674312392109,0.0,0.0
-1.1338604713496847,0.0,1.3377692324466912,0.0,0.0,-0.19618737713125745,7.482828006368058,-1.7570621474000527,0.9293300914863263,5.1573159897840055,3.548021200326353,-2.6335549089481094,6.156243449813855,0.0,2.853680115008165,0.0,0.5944102656601089,0.20599660082479865,0.08469212674121188,0.0,3.1356051648495327,0.0,0.0,2.6532171285694184,0.0,-4.599678383551998,5.116667412540068,6.696191378561321,0.0,4.248898120420716,0.0,0.0,-1.4332920327192777,-3.330764117804191,-2.1773252491728896,-4.214803718742422,0.0,-0.3579758824515906,0.0,0.0
-2.0927486284953214,0.0,2.469099855922789,0.0,0.0,-0.3620999891907446,13.810939214551434,-3.24298226463041,1.7152500889835185,9.518777871751821,6.548527520336654,-4.86071131592395,11.362482740883879,0.0,5.266992983483169,0.0,1.0970937779875172,0.38020472072515155,0.15631494047150898,0.0,5.787337661070964,0.0,0.0,4.897001568724358,0.0,-8.489554819068521,9.443753425246268,12.359056231094794,0.0,7.842125145735441,0.0,0.0,-2.6454048020000887,-6.14753950376179,-4.018655332054111,-7.779197639084922,0.0,-0.660710515944892,0.0,0.0
0.0,0.0,0.0,0.0,0.0,0.0,0.0,0.0,0.0,0.0,0.0,0.0,0.0,0.0,0.0,0.0,0.0,0.0,0.0,0.0,0.0,0.0,0.0,0.0,0.0,0.0,0.0,0.0,0.0,0.0,0.0,0.0,0.0,0.0,0.0,0.0,0.0,0.0,0.0,0.0
-2.311869400751504,0.0,2.727626398404114,0.0,0.0,-0.40001358673660903,15.257010484205821,-3.5825379898442127,1.894844961962022,10.515439357891692,7.234189614607733,-5.3696509959013845,12.552188928731269,0.0,5.818472293656473,0.0,1.2119647341056066,0.420013970095269,0.17268186099168786,0.0,6.393299543130798,0.0,0.0,5.409741011420888,0.0,-9.378451738046792,10.432559493667762,13.653108421042809,0.0,8.663233087064583,0.0,0.0,-2.922391314021482,-6.791216238367131,-4.4394277305166305,-8.59371677004971,0.0,-0.7298900612186685,0.0,0.0
0.0,0.0,0.0,0.0,0.0,0.0,0.0,0.0,0.0,0.0,0.0,0.0,0.0,0.0,0.0,0.0,0.0,0.0,0.0,0.0,0.0,0.0,0.0,0.0,0.0,0.0,0.0,0.0,0.0,0.0,0.0,0.0,0.0,0.0,0.0,0.0,0.0,0.0,0.0,0.0
-0.03811628847655926,0.0,0.04497096359511212,0.0,0.0,-0.006595110113763129,0.25154561616535975,-0.05906607503639537,0.03124071678314608,0.173370312307813,0.11927164144950587,-0.08853059187153468,0.20695064092472962,0.0,0.09593040522348946,0.0,0.01998192346573264,0.006924860739595474,0.0028470430146654113,0.0,0.10540770582620873,0.0,0.0,0.08919156458741319,0.0,-0.1546245526649036,0.17200385414515448,0.22510173758476293,0.0,0.14283258880405933,0.0,0.0,-0.04818209468511709,-0.11196824403841782,-0.07319380064989969,-0.14168645832095095,0.0,-0.01203385455966534,0.0,0.0
0.0,0.0,0.0,0.0,0.0,0.0,0.0,0.0,0.0,0.0,0.0,0.0,0.0,0.0,0.0,0.0,0.0,0.0,0.0,0.0,0.0,0.0,0.0,0.0,0.0,0.0,0.0,0.0,0.0,0.0,0.0,0.0,0.0,0.0,0.0,0.0,0.0,0.0,0.0,0.0
0.0,0.0,0.0,0.0,0.0,0.0,0.0,0.0,0.0,0.0,0.0,0.0,0.0,0.0,0.0,0.0,0.0,0.0,0.0,0.0,0.0,0.0,0.0,0.0,0.0,0.0,0.0,0.0,0.0,0.0,0.0,0.0,0.0,0.0,0.0,0.0,0.0,0.0,0.0,0.0
0.0,0.0,0.0,0.0,0.0,0.0,0.0,0.0,0.0,0.0,0.0,0.0,0.0,0.0,0.0,0.0,0.0,0.0,0.0,0.0,0.0,0.0,0.0,0.0,0.0,0.0,0.0,0.0,0.0,0.0,0.0,0.0,0.0,0.0,0.0,0.0,0.0,0.0,0.0,0.0
0.0,0.0,0.0,0.0,0.0,0.0,0.0,0.0,0.0,0.0,0.0,0.0,0.0,0.0,0.0,0.0,0.0,0.0,0.0,0.0,0.0,0.0,0.0,0.0,0.0,0.0,0.0,0.0,0.0,0.0,0.0,0.0,0.0,0.0,0.0,0.0,0.0,0.0,0.0,0.0
0.0,0.0,0.0,0.0,0.0,0.0,0.0,0.0,0.0,0.0,0.0,0.0,0.0,0.0,0.0,0.0,0.0,0.0,0.0,0.0,0.0,0.0,0.0,0.0,0.0,0.0,0.0,0.0,0.0,0.0,0.0,0.0,0.0,0.0,0.0,0.0,0.0,0.0,0.0,0.0
0.0,0.0,0.0,0.0,0.0,0.0,0.0,0.0,0.0,0.0,0.0,0.0,0.0,0.0,0.0,0.0,0.0,0.0,0.0,0.0,0.0,0.0,0.0,0.0,0.0,0.0,0.0,0.0,0.0,0.0,0.0,0.0,0.0,0.0,0.0,0.0,0.0,0.0,0.0,0.0
-4.6016528638622125,0.0,5.429195015809458,0.0,0.0,-0.7962057313410353,30.3682664625431,-7.130850988166949,3.7715879378623463,20.930421770486877,14.399268984208556,-10.688004207849332,24.984463271523847,0.0,11.58135908745702,0.0,2.4123512287433613,0.8360154287793087,0.34371404367009417,0.0,12.72552210025944,0.0,0.0,10.767801247711372,0.0,-18.667308492836145,20.76545381665757,27.1757848630594,0.0,17.243703875503478,0.0,0.0,-5.816864203108363,-13.517554080793307,-8.836444361173928,-17.105335350372837,0.0,-1.452807277703343,0.0,0.0
-0.8891368987564083,0.0,1.04903558827968,0.0,0.0,-0.1538438286590937,5.867792956561949,-1.3778316010980785,0.728750755797649,4.044201258383221,2.782244064849541,-2.065149022841882,4.827528031241183,0.0,2.237764126727969,0.0,0.46611740470050117,0.16153590625987754,0.06641284075290975,0.0,2.458840679647497,0.0,0.0,2.0805675028211232,0.0,-3.6069197900162338,4.012325952009313,5.250937823704446,0.0,3.331849194306828,0.0,0.0,-1.1239414947302293,-2.61187805115768,-1.7073884032037654,-3.305113461525608,0.0,-0.2807131688555308,0.0,0.0
0.0,0.0,0.0,0.0,0.0,0.0,0.0,0.0,0.0,0.0,0.0,0.0,0.0,0.0,0.0,0.0,0.0,0.0,0.0,0.0,0.0,0.0,0.0,0.0,0.0,0.0,0.0,0.0,0.0,0.0,0.0,0.0,0.0,0.0,0.0,0.0,0.0,0.0,0.0,0.0
0.0,0.0,0.0,0.0,0.0,0.0,0.0,0.0,0.0,0.0,0.0,0.0,0.0,0.0,0.0,0.0,0.0,0.0,0.0,0.0,0.0,0.0,0.0,0.0,0.0,0.0,0.0,0.0,0.0,0.0,0.0,0.0,0.0,0.0,0.0,0.0,0.0,0.0,0.0,0.0
-0.4670009968499506,0.0,0.5509845178429607,0.0,0.0,-0.08080332898510467,3.0819384099976306,-0.7236779084347146,0.38276145089542,2.12413411451976,1.4613168721058316,-1.0846773468289934,2.5355605037468516,0.0,1.1753399047533215,0.0,0.24481864710451262,0.084843435646337,0.034881988227712546,0.0,1.2914558490336356,0.0,0.0,1.0927755885399015,0.0,-1.8944609540458073,2.1073922608498328,2.7579478497595225,0.0,1.7499857415334592,0.0,0.0,-0.5903273153708577,-1.371835602871893,-0.8967708880616929,-1.7359433439253893,0.0,-0.14743885881667396,0.0,0.0
-1.4767934218693488,0.0,1.7423738214498528,0.0,0.0,-0.2555237044787051,9.745988555038053,-2.288480714039976,1.2104033966530148,6.71713188761984,4.621110358541653,-3.4300662770585797,8.018182183641475,0.0,3.7167677403437125,0.0,0.7741879996694401,0.26829970063546593,0.11030702526093634,0.0,4.083960238526779,0.0,0.0,3.455675280397003,0.0,-5.990838336094817,6.664189261080669,8.72143586385582,0.0,5.533965556592024,0.0,0.0,-1.866787227371991,-4.3381444747928875,-2.8358512237586506,-5.489559397815591,0.0,-0.46624469390232903,0.0,0.0
0.0,0.0,0.0,0.0,0.0,0.0,0.0,0.0,0.0,0.0,0.0,0.0,0.0,0.0,0.0,0.0,0.0,0.0,0.0,0.0,0.0,0.0,0.0,0.0,0.0,0.0,0.0,0.0,0.0,0.0,0.0,0.0,0.0,0.0,0.0,0.0,0.0,0.0,0.0,0.0
0.0,0.0,0.0,0.0,0.0,0.0,0.0,0.0,0.0,0.0,0.0,0.0,0.0,0.0,0.0,0.0,0.0,0.0,0.0,0.0,0.0,0.0,0.0,0.0,0.0,0.0,0.0,0.0,0.0,0.0,0.0,0.0,0.0,0.0,0.0,0.0,0.0,0.0,0.0,0.0
-1.5214281526927917,0.0,1.795035477008817,0.0,0.0,-0.2632466748004303,10.040552147562618,-2.3576479510774466,1.2469867325464001,6.920151056902137,4.760779193670835,-3.5337368938935887,8.260524408464729,0.0,3.8291036467520057,0.0,0.7975871240562782,0.2764088137588949,0.11364095423674687,0.0,4.207394202438635,0.0,0.0,3.5601199059415167,0.0,-6.171905946891645,6.865608287885577,8.985033288121409,0.0,5.70122460538439,0.0,0.0,-1.9232091643636373,-4.469260924824527,-2.9215622339469105,-5.655476311063108,0.0,-0.4803365134500126,0.0,0.0
0.0,0.0,0.0,0.0,0.0,0.0,0.0,0.0,0.0,0.0,0.0,0.0,0.0,0.0,0.0,0.0,0.0,0.0,0.0,0.0,0.0,0.0,0.0,0.0,0.0,0.0,0.0,0.0,0.0,0.0,0.0,0.0,0.0,0.0,0.0,0.0,0.0,0.0,0.0,0.0
-3.016121329014575,0.0,3.5585280704591735,0.0,0.0,-0.521867502748954,19.904668803286953,-4.673866629171052,2.4720610528828755,13.718699214145401,9.437900595795547,-7.005377939098961,16.375892488330198,0.0,7.590921174644656,0.0,1.5811588160478056,0.5479604917460459,0.22528497669533457,0.0,8.34085485475423,0.0,0.0,7.057680353261972,0.0,-12.235357374020271,13.610572117454572,17.812178967665645,0.0,11.302265639930425,0.0,0.0,-3.812623139993081,-8.859986701597814,-5.791785929723118,-11.21157295357239,0.0,-0.9522324144961534,0.0,0.0
0.0,0.0,0.0,0.0,0.0,0.0,0.0,0.0,0.0,0.0,0.0,0.0,0.0,0.0,0.0,0.0,0.0,0.0,0.0,0.0,0.0,0.0,0.0,0.0,0.0,0.0,0.0,0.0,0.0,0.0,0.0,0.0,0.0,0.0,0.0,0.0,0.0,0.0,0.0,0.0
0.0,0.0,0.0,0.0,0.0,0.0,0.0,0.0,0.0,0.0,0.0,0.0,0.0,0.0,0.0,0.0,0.0,0.0,0.0,0.0,0.0,0.0,0.0,0.0,0.0,0.0,0.0,0.0,0.0,0.0,0.0,0.0,0.0,0.0,0.0,0.0,0.0,0.0,0.0,0.0
0.0,0.0,0.0,0.0,0.0,0.0,0.0,0.0,0.0,0.0,0.0,0.0,0.0,0.0,0.0,0.0,0.0,0.0,0.0,0.0,0.0,0.0,0.0,0.0,0.0,0.0,0.0,0.0,0.0,0.0,0.0,0.0,0.0,0.0,0.0,0.0,0.0,0.0,0.0,0.0
-1.1888872403317874,0.0,1.4026917871747735,0.0,0.0,-0.20570844057017945,7.845973083247836,-1.8423331796965494,0.9744309072784691,5.407602901364705,3.7202082972991954,-2.7613625371687758,6.455008769419054,0.0,2.992170520490293,0.0,0.6232572686164204,0.2159937103908387,0.08880227451560621,0.0,3.287777522370629,0.0,0.0,2.781978973330934,0.0,-4.822902886212722,5.364981630014242,7.021160618920706,0.0,4.455099095945133,0.0,0.0,-1.5028503527782267,-3.4924076288669945,-2.2829918426493507,-4.4193500773081045,0.0,-0.37534861629544736,0.0,0.0
-0.5747796282519839,0.0,0.6781456109827767,0.0,0.0,-0.09945183780946813,3.79321548678218,-0.8906947136944265,0.4710985328486303,2.614360622217918,1.798572538758877,-1.3350088038121135,3.1207396420661038,0.0,1.446595270846707,0.0,0.30132006552675156,0.10442435611350852,0.04293236280319263,0.0,1.5895094824602876,0.0,0.0,1.3449760295599977,0.0,-2.331681453035989,2.5937549350918543,3.394451511915021,0.0,2.153862969778756,0.0,0.0,-0.726568288214756,-1.688439988694269,-1.1037356261423918,-2.1365797431231903,0.0,-0.18146610613718558,0.0,0.0
-1.4180863227778102,0.0,1.6731090813206075,0.0,0.0,-0.24536584812796391,9.35855541281741,-2.197506538465604,1.1622861237184594,6.450105151518683,4.4374069510681595,-3.2937105499570016,7.699434680423863,0.0,3.5690147446969753,0.0,0.7434116358672895,0.25763395898319175,0.10592198036123096,0.0,3.9216102071286123,0.0,0.0,3.3183015163280594,0.0,-5.75268401157642,6.3992671578796685,8.374731855090822,0.0,5.313973335954444,0.0,0.0,-1.7925766701490176,-4.1656898350419205,-2.723117380056042,-5.2713324591226325,0.0,-0.4477100274821737,0.0,0.0
-0.5188061431951548,0.0,0.6121060866904199,0.0,0.0,-0.08976696784559735,3.423822627448526,-0.8039566234827201,0.42522177349150025,2.3597676129529415,1.6234230237560447,-1.2050022906060591,2.8168341709333276,0.0,1.3057221869793016,0.0,0.2719767600996317,0.09425524981747602,0.03875150139179035,0.0,1.4347190534140197,0.0,0.0,1.2139988828554076,0.0,-2.1046164518533463,2.341168559436952,3.0638912908505915,0.0,1.9441143794885738,0.0,0.0,-0.6558132418905926,-1.5240154582634533,-0.9962510763429221,-1.928514236890599,0.0,-0.1637944805594298,0.0,0.0
0.0,0.0,0.0,0.0,0.0,0.0,0.0,0.0,0.0,0.0,0.0,0.0,0.0,0.0,0.0,0.0,0.0,0.0,0.0,0.0,0.0,0.0,0.0,0.0,0.0,0.0,0.0,0.0,0.0,0.0,0.0,0.0,0.0,0.0,0.0,0.0,0.0,0.0,0.0,0.0
-3.228034679491816,0.0,3.808551038343126,0.0,0.0,-0.5585340287102467,21.303175227967976,-5.002253530435069,2.645748608241221,14.682578049752083,10.101009575360248,-7.497577339750669,17.526466310037474,0.0,8.124260972302315,0.0,1.692251383552307,0.5864603168750966,0.24111354889647124,0.0,8.926885158347098,0.0,0.0,7.553554533080126,0.0,-13.095016284446857,14.566853919375404,19.063666594515034,0.0,12.09636531911143,0.0,0.0,-4.080498883561714,-9.482491323364082,-6.198718087858669,-11.999300544586703,0.0,-1.0191364741729707,0.0,0.0
-1.0181823357170054,0.0,1.2012880210221613,0.0,0.0,-0.17617204844253898,6.719418737848191,-1.5778040477151347,0.8345184501187428,4.6311589240414515,3.1860467881216294,-2.3648757110651677,5.528174315409986,0.0,2.5625434154429607,0.0,0.5337676442177735,0.18498052051139213,0.0760517097130672,0.0,2.815706051409031,0.0,0.0,2.3825319617285095,0.0,-4.130412337716685,4.594657375246351,6.0130359515187415,0.0,3.815419199969063,0.0,0.0,-1.287065442806694,-2.99095459704263,-1.9551912813219179,-3.7848031599775136,0.0,-0.3214546492577295,0.0,0.0
-1.651533603147598,0.0,1.948538551672736,0.0,0.0,-0.2857583045116465,10.899173409211759,-2.5592630244845442,1.353623230800995,7.511930148724527,5.167898859763595,-3.8359256167426183,8.966925987306315,0.0,4.156550758807257,0.0,0.8657930606091355,0.3000460082988603,0.12335899942666749,0.0,4.567190961148772,0.0,0.0,3.8645647811174078,0.0,-6.699698601420746,7.452723136102777,9.753391492374062,0.0,6.188766783511376,0.0,0.0,-2.0876730558760137,-4.851451306141713,-3.1714006307234195,-6.139106308105713,0.0,-0.5214126551933447,0.0,0.0
-0.31289287098268437,0.0,0.3691622262431414,0.0,0.0,-0.0541386116124956,2.0649132738485503,-0.4848676126266088,0.256451977790202,1.4231798774037672,0.9790891981233641,-0.726738939378006,1.6988374991040187,0.0,0.7874832808910319,0.0,0.1640296485003867,0.05684550213486298,0.023371096669543075,0.0,0.8652815113397915,0.0,0.0,0.7321647995280475,0.0,-1.2692977763952082,1.411962756464647,1.8478380700524393,0.0,1.1724987024451654,0.0,0.0,-0.39552208618782897,-0.919136325605669,-0.6008407255487516,-1.1630902298022663,0.0,-0.09878473095504413,0.0,0.0
-0.1276365392150432,0.0,0.15059016467397537,0.0,0.0,-0.022084443798365397,0.8423278652066801,-0.19778917895686213,0.10461293930153476,0.5805493543582809,0.39939406877126876,-0.29645431947266404,0.6929967384471847,0.0,0.3212333996200298,0.0,0.06691164486265326,0.02318864964755553,0.009533633307758492,0.0,0.352969171868045,0.0,0.0,0.29866765852906724,0.0,-0.5177771385574322,0.5759736205228331,0.753777660547434,0.0,0.4782904645421325,0.0,0.0,-0.16134298651669274,-0.3749378478924532,-0.2450974053440235,-0.4744525219144607,0.0,-0.040296671339273636,0.0,0.0

7.304210344676647e-157,2.098574748486201e-135,40.28842488068391,-40.28842488068391
0.0,0.0,0.0,0.0
9.318455740246841e-157,2.6772881651225252e-135,51.3985614295083,-51.3985614295083
0.0,0.0,0.0,0.0
0.0,0.0,0.0,0.0
4.7401970369755455e-158,1.3619073568843623e-136,2.6145888909540167,-2.6145888909540167
9.816609306575066e-159,2.8204128077372692e-137,0.5414626742221517,-0.5414626742221517
2.644856661846959e-157,7.598945186405703e-136,14.58845021059081,-14.58845021059081
1.7511745690990172e-158,5.031304627721657e-137,0.9659095473821964,-0.9659095473821964
2.3489005342859426e-157,6.748632795810378e-136,12.95602101557042,-12.95602101557042
5.974384564103083e-157,1.7165021258061133e-135,32.95339706291551,-32.95339706291551
1.0463528011154464e-156,3.0062792044714703e-135,57.71452934286912,-57.71452934286912
7.037266178651131e-158,2.0218789443346765e-136,3.8816019312833037,-3.8816019312833037
0.0,0.0,0.0,0.0
1.0395957991704662e-157,2.9868656429938193e-136,5.734182791118408,-5.734182791118408
0.0,0.0,0.0,0.0
8.329519638418084e-158,2.393156652853476e-136,4.594380643612809,-4.594380643612809
7.499028133122242e-157,2.1545479026117278e-135,41.362997143095775,-41.362997143095775
3.174760672022849e-157,9.121413902941449e-136,17.511284699264017,-17.511284699264017
0.0,0.0,0.0,0.0
6.561228423735895e-157,1.8851084017777724e-135,36.19029929324878,-36.19029929324878
0.0,0.0,0.0,0.0
0.0,0.0,0.0,0.0
3.5341202008745186e-157,1.015389078584726e-135,19.493433172555196,-19.493433172555196
0.0,0.0,0.0,0.0
3.843031039715955e-157,1.1041423394213054e-135,21.19731771834496,-21.19731771834496
5.2867670553903836e-157,1.5189425440981272e-135,29.160649450354665,-29.160649450354665
7.261061018692309e-157,2.0861775033834598e-135,40.05042264682996,-40.05042264682996
0.0,0.0,0.0,0.0
3.1742371832162374e-157,9.119909865764493e-136,17.508397249633486,-17.508397249633486
0.0,0.0,0.0,0.0
0.0,0.0,0.0,0.0
3.5815307882751075e-157,1.0290106279151454e-135,19.754939591305828,-19.754939591305828
2.231436553989977e-157,6.41114670043054e-136,12.308115420985622,-12.308115420985622
4.351897996506034e-158,1.2503450492921905e-136,2.4004116426961133,-2.4004116426961133
3.25512880158148e-157,9.352319804217595e-136,17.954577703946416,-17.954577703946416
0.0,0.0,0.0,0.0
4.110230535042212e-157,1.1809115023067376e-135,22.671131626710043,-22.671131626710043
0.0,0.0,0.0,0.0
0.0,0.0,0.0,0.0

