0.0,5.302999,0.0,1.0294927,0.0,0.0,-8.007869,-0.62155014,-8.262644,0.0,11.039271,0.0,0.0,0.17079906,-10.433953,0.0,0.0,0.0,2.509499,5.1581583,0.0,0.0,-6.4692073,12.264661,0.0,12.564811,-11.085421,0.0,0.0,0.0,3.061845,-0.9884574,0.0,-12.875276,0.0,0.0,0.080068514,5.975113,-5.732251,-0.2718035,-5.5868144,0.0,-7.2121987,-0.9689227,0.0,-2.7941103,0.0,-1.5736861,0.0,-10.357731,4.3032274,-6.1373796,0.0,2.3985722,0.0,0.0,1.4275671,4.3412194,0.0,-4.1850634,0.8791878,-2.580819,1.8928683,-8.407654,14.49641,4.2485027,0.0,-1.6737051,0.0,1.8771428,0.0,0.0,0.0,0.0,0.0,0.0,0.91015035,0.68137664,0.0,0.0,1.8709104,2.9364192,0.0,0.0,1.579274,0.0,8.523952,0.0,0.0,0.0,-4.9544797,-8.113829,5.106945,10.410107,0.0,1.8236305,4.1007323,4.915877,2.3782547,-8.752061
-0.45392942,0.0,0.5355622,0.0,0.0,-0.07854161,2.9956737,-0.70342183,0.37204778,2.0646787,1.420414,-1.0543168,2.464589,0.0,1.1424416,0.0,0.23796606,0.08246863,0.033905625,0.0,1.2553074,0.0,0.0,1.0621883,0.0,-1.8414341,2.0484054,2.6807516,0.0,1.7010028,0.0,0.0,-0.5738038,-1.3334373,-0.8716699,-1.6873535,0.0,-0.14331198,0.0,0.0
0.0,0.0,1.0,-1.0
